<?xml version="1.0"?>
<opencv_storage>
<stage13>
  <maxWeakCount>6</maxWeakCount>
  <stageThreshold>-8.0093288421630859e-01</stageThreshold>
  <weakClassifiers>
    <_>
      <internalNodes>
        0 -1 16376679 -8.6062168702483177e-04</internalNodes>
      <leafValues>
        5.1020407676696777e-01 -4.8461538553237915e-01</leafValues></_>
    <_>
      <internalNodes>
        0 -1 18122177 -1.6509253531694412e-02</internalNodes>
      <leafValues>
        -9.0280312299728394e-01 2.2667415440082550e-01</leafValues></_>
    <_>
      <internalNodes>
        0 -1 17158430 1.2827565660700202e-03</internalNodes>
      <leafValues>
        -2.8444311022758484e-01 8.3423036336898804e-01</leafValues></_>
    <_>
      <internalNodes>
        0 -1 1909841 -2.9762709164060652e-04</internalNodes>
      <leafValues>
        -3.9065876603126526e-01 5.3624713420867920e-01</leafValues></_>
    <_>
      <internalNodes>
        0 -1 15368708 -2.8797325212508440e-03</internalNodes>
      <leafValues>
        9.0919983386993408e-01 -2.6271727681159973e-01</leafValues></_>
    <_>
      <internalNodes>
        0 -1 16762089 7.8993371062097140e-06</internalNodes>
      <leafValues>
        3.9482748508453369e-01 -5.9338098764419556e-01</leafValues></_></weakClassifiers></stage13>
</opencv_storage>
