<?xml version="1.0"?>
<opencv_storage>
<stage19>
  <maxWeakCount>6</maxWeakCount>
  <stageThreshold>-7.5221860408782959e-01</stageThreshold>
  <weakClassifiers>
    <_>
      <internalNodes>
        0 -1 18960179 7.0541128516197205e-03</internalNodes>
      <leafValues>
        -6.3636362552642822e-01 3.0909091234207153e-01</leafValues></_>
    <_>
      <internalNodes>
        0 -1 227102 -5.8512523770332336e-02</internalNodes>
      <leafValues>
        5.8681666851043701e-01 -4.6997475624084473e-01</leafValues></_>
    <_>
      <internalNodes>
        0 -1 12618038 2.3300331085920334e-03</internalNodes>
      <leafValues>
        3.8888928294181824e-01 -6.7070490121841431e-01</leafValues></_>
    <_>
      <internalNodes>
        0 -1 16631253 1.1719300528056920e-04</internalNodes>
      <leafValues>
        2.8291004896163940e-01 -8.8891661167144775e-01</leafValues></_>
    <_>
      <internalNodes>
        0 -1 8262346 -2.7323490940034389e-03</internalNodes>
      <leafValues>
        7.3248934745788574e-01 -3.5933312773704529e-01</leafValues></_>
    <_>
      <internalNodes>
        0 -1 18626157 2.2274749426287599e-05</internalNodes>
      <leafValues>
        2.6802566647529602e-01 -9.7263216972351074e-01</leafValues></_></weakClassifiers></stage19>
</opencv_storage>
