<?xml version="1.0"?>
<opencv_storage>
<stage8>
  <maxWeakCount>6</maxWeakCount>
  <stageThreshold>-1.1150491237640381e+00</stageThreshold>
  <weakClassifiers>
    <_>
      <internalNodes>
        0 -1 11393842 -3.5316043067723513e-03</internalNodes>
      <leafValues>
        7.0093458890914917e-01 -4.1999998688697815e-01</leafValues></_>
    <_>
      <internalNodes>
        0 -1 18245152 -2.8151879087090492e-04</internalNodes>
      <leafValues>
        4.4870489835739136e-01 -5.6719487905502319e-01</leafValues></_>
    <_>
      <internalNodes>
        0 -1 8013 8.2825556397438049e-02</internalNodes>
      <leafValues>
        2.6181989908218384e-01 -8.6537575721740723e-01</leafValues></_>
    <_>
      <internalNodes>
        0 -1 1160755 8.6877797730267048e-04</internalNodes>
      <leafValues>
        -3.4501272439956665e-01 7.0825040340423584e-01</leafValues></_>
    <_>
      <internalNodes>
        0 -1 18203634 -2.7713374947779812e-05</internalNodes>
      <leafValues>
        -7.5650072097778320e-01 2.8569272160530090e-01</leafValues></_>
    <_>
      <internalNodes>
        0 -1 18077328 -1.0815400164574385e-03</internalNodes>
      <leafValues>
        7.1183931827545166e-01 -3.2610890269279480e-01</leafValues></_></weakClassifiers></stage8>
</opencv_storage>
