<?xml version="1.0"?>
<opencv_storage>
<stage9>
  <maxWeakCount>6</maxWeakCount>
  <stageThreshold>-6.3008582592010498e-01</stageThreshold>
  <weakClassifiers>
    <_>
      <internalNodes>
        0 -1 18246512 -8.3561223000288010e-03</internalNodes>
      <leafValues>
        4.8750001192092896e-01 -5.2226722240447998e-01</leafValues></_>
    <_>
      <internalNodes>
        0 -1 10179129 -1.4336669817566872e-02</internalNodes>
      <leafValues>
        -7.2956228256225586e-01 2.9499742388725281e-01</leafValues></_>
    <_>
      <internalNodes>
        0 -1 119338 4.1707971831783652e-04</internalNodes>
      <leafValues>
        -3.1311422586441040e-01 7.6813113689422607e-01</leafValues></_>
    <_>
      <internalNodes>
        0 -1 971719 -1.4547271421179175e-03</internalNodes>
      <leafValues>
        4.0887454152107239e-01 -5.6781595945358276e-01</leafValues></_>
    <_>
      <internalNodes>
        0 -1 18501282 -1.6874222637852654e-05</internalNodes>
      <leafValues>
        2.9018986225128174e-01 -8.1764328479766846e-01</leafValues></_>
    <_>
      <internalNodes>
        0 -1 6293210 7.7256205258890986e-05</internalNodes>
      <leafValues>
        3.2691022753715515e-01 -6.9070035219192505e-01</leafValues></_></weakClassifiers></stage9>
</opencv_storage>
