<?xml version="1.0"?>
<opencv_storage>
<stage4>
  <maxWeakCount>6</maxWeakCount>
  <stageThreshold>-8.2075303792953491e-01</stageThreshold>
  <weakClassifiers>
    <_>
      <internalNodes>
        0 -1 12624751 -4.3515517609193921e-04</internalNodes>
      <leafValues>
        -8.9062500000000000e-01 2.2580644488334656e-01</leafValues></_>
    <_>
      <internalNodes>
        0 -1 3303273 -7.5743906199932098e-03</internalNodes>
      <leafValues>
        5.6560891866683960e-01 -5.1263916492462158e-01</leafValues></_>
    <_>
      <internalNodes>
        0 -1 18734706 4.0274126149597578e-06</internalNodes>
      <leafValues>
        2.7783244848251343e-01 -8.5933589935302734e-01</leafValues></_>
    <_>
      <internalNodes>
        0 -1 18596390 1.5859212726354599e-02</internalNodes>
      <leafValues>
        -3.9783936738967896e-01 6.9135719537734985e-01</leafValues></_>
    <_>
      <internalNodes>
        0 -1 2881867 3.9302560617215931e-04</internalNodes>
      <leafValues>
        3.9157667756080627e-01 -6.7106598615646362e-01</leafValues></_>
    <_>
      <internalNodes>
        0 -1 9333892 1.4060755347600207e-05</internalNodes>
      <leafValues>
        3.1094133853912354e-01 -8.6435407400131226e-01</leafValues></_></weakClassifiers></stage4>
</opencv_storage>
