<?xml version="1.0"?>
<opencv_storage>
<stage14>
  <maxWeakCount>8</maxWeakCount>
  <stageThreshold>-9.4363343715667725e-01</stageThreshold>
  <weakClassifiers>
    <_>
      <internalNodes>
        0 -1 18951303 -5.8036611881107092e-04</internalNodes>
      <leafValues>
        4.8344370722770691e-01 -4.8437500000000000e-01</leafValues></_>
    <_>
      <internalNodes>
        0 -1 12008022 3.1689752358943224e-04</internalNodes>
      <leafValues>
        3.1281307339668274e-01 -6.6467040777206421e-01</leafValues></_>
    <_>
      <internalNodes>
        0 -1 18935314 -1.8570503016235307e-05</internalNodes>
      <leafValues>
        -6.9808578491210938e-01 2.8290951251983643e-01</leafValues></_>
    <_>
      <internalNodes>
        0 -1 17665512 9.7435101633891463e-04</internalNodes>
      <leafValues>
        -3.0186280608177185e-01 6.7043721675872803e-01</leafValues></_>
    <_>
      <internalNodes>
        0 -1 17317724 -4.7003923100419343e-05</internalNodes>
      <leafValues>
        4.3472492694854736e-01 -5.2518093585968018e-01</leafValues></_>
    <_>
      <internalNodes>
        0 -1 17991169 1.2415987439453602e-03</internalNodes>
      <leafValues>
        -2.5424861907958984e-01 8.2540243864059448e-01</leafValues></_>
    <_>
      <internalNodes>
        0 -1 15298227 3.8321551983244717e-05</internalNodes>
      <leafValues>
        -2.8569856286048889e-01 7.1637868881225586e-01</leafValues></_>
    <_>
      <internalNodes>
        0 -1 18308796 -2.2331441869027913e-05</internalNodes>
      <leafValues>
        -6.6029012203216553e-01 3.8603743910789490e-01</leafValues></_></weakClassifiers></stage14>
</opencv_storage>
